Language model created by QuickLM on Mon Apr  8 00:02:04 EDT 2019
Copyright (c) 1996-2010 Carnegie Mellon University and Alexander I. Rudnicky

The model is in standard ARPA format, designed by Doug Paul while he was at MITRE.

The code that was used to produce this language model is available in Open Source.
Please visit http://www.speech.cs.cmu.edu/tools/ for more information

The (fixed) discount mass is 0.5. The backoffs are computed using the ratio method.
This model based on a corpus of 97 sentences and 87 words

\data\
ngram 1=87
ngram 2=170
ngram 3=85

\1-grams:
-0.7782 </s> -0.3010
-0.7782 <s> -0.2218
-2.7649 A -0.2218
-2.7649 AN -0.2218
-2.7649 ANYTHING -0.2218
-2.7649 ARE -0.2218
-2.7649 BACKED -0.2218
-2.7649 BE -0.2218
-2.7649 BREW -0.2218
-2.7649 BUSY -0.2218
-2.7649 BUTTER -0.2218
-2.7649 CLUB -0.2218
-2.7649 COFFEE -0.2218
-2.7649 COULD -0.2218
-2.7649 CRAYONS -0.2218
-2.7649 DAD -0.2218
-2.7649 DAYS -0.2218
-2.7649 DO -0.2218
-2.7649 DOING -0.2218
-2.7649 DON’T -0.2218
-2.7649 ELSE -0.2218
-2.7649 FAIR -0.2218
-2.7649 FAIRS -0.2218
-2.7649 FATHER -0.2218
-2.7649 FOR -0.2218
-2.7649 FUN -0.2218
-2.7649 GET -0.2218
-2.7649 GIVE -0.2218
-2.7649 GOD -0.2218
-2.7649 HAVE -0.2218
-2.7649 HELP -0.2218
-2.7649 HELPING -0.2218
-2.7649 HEY -0.2218
-2.7649 HORSE -0.2218
-2.7649 I -0.2218
-2.7649 IDIOT -0.2218
-2.7649 IT -0.2218
-2.7649 I’M -0.2218
-2.7649 KNOCK -0.2218
-2.7649 MAKE -0.2218
-2.7649 MAYBE -0.2218
-2.7649 ME -0.2218
-2.7649 MORTY -0.2218
-2.7649 MY -0.2218
-2.7649 NEED -0.2218
-2.7649 OH -0.2218
-2.7649 ONE -0.2218
-2.7649 OR -0.2218
-2.4639 OUT -0.2218
-2.7649 PAL -0.2218
-2.7649 PASS -0.2218
-2.4639 PROJECT -0.2218
-2.7649 PURPOSE -0.2218
-2.7649 RICK -0.2218
-2.7649 RIDE -0.2218
-2.7649 RIGHT -0.2218
-2.1629 SCIENCE -0.2218
-2.7649 SCIENTIFICALLY -0.2218
-2.7649 SOME -0.2218
-2.4639 SON -0.2218
-2.7649 THANK -0.2218
-2.7649 THE -0.2218
-2.2878 THING -0.2218
-2.4639 THINK -0.2218
-2.4639 THIS -0.2218
-2.7649 THREE -0.2218
-2.7649 TO -0.2218
-2.7649 TOGETHER -0.2218
-2.7649 TRADITIONALLY -0.2218
-2.7649 TRADITIONSE -0.2218
-2.7649 TWO -0.2218
-2.7649 UH -0.2218
-2.7649 UM -0.2218
-2.7649 WE -0.2218
-2.7649 WEEKEND -0.2218
-2.7649 WELCOME -0.2218
-2.7649 WELL -0.2218
-2.7649 WE’LL -0.2218
-2.7649 WHAT -0.2218
-2.7649 WHATEVER -0.2218
-2.7649 WHY -0.2218
-2.7649 WILL -0.2218
-2.7649 WITH -0.2218
-2.4639 WORK -0.2218
-2.4639 YEAH -0.2218
-2.7649 YES -0.2218
-2.7649 YOU -0.2218

\2-grams:
-2.2878 <s> A 0.0000
-2.2878 <s> AN 0.0000
-2.2878 <s> ANYTHING 0.0000
-2.2878 <s> ARE 0.0000
-2.2878 <s> BACKED 0.0000
-2.2878 <s> BE 0.0000
-2.2878 <s> BREW 0.0000
-2.2878 <s> BUSY 0.0000
-2.2878 <s> BUTTER 0.0000
-2.2878 <s> CLUB 0.0000
-2.2878 <s> COFFEE 0.0000
-2.2878 <s> COULD 0.0000
-2.2878 <s> CRAYONS 0.0000
-2.2878 <s> DAD 0.0000
-2.2878 <s> DAYS 0.0000
-2.2878 <s> DO 0.0000
-2.2878 <s> DOING 0.0000
-2.2878 <s> DON’T 0.0000
-2.2878 <s> ELSE 0.0000
-2.2878 <s> FAIR 0.0000
-2.2878 <s> FAIRS 0.0000
-2.2878 <s> FATHER 0.0000
-2.2878 <s> FOR 0.0000
-2.2878 <s> FUN 0.0000
-2.2878 <s> GET 0.0000
-2.2878 <s> GIVE 0.0000
-2.2878 <s> GOD 0.0000
-2.2878 <s> HAVE 0.0000
-2.2878 <s> HELP 0.0000
-2.2878 <s> HELPING 0.0000
-2.2878 <s> HEY 0.0000
-2.2878 <s> HORSE 0.0000
-2.2878 <s> I 0.0000
-2.2878 <s> IDIOT 0.0000
-2.2878 <s> IT 0.0000
-2.2878 <s> I’M 0.0000
-2.2878 <s> KNOCK 0.0000
-2.2878 <s> MAKE 0.0000
-2.2878 <s> MAYBE 0.0000
-2.2878 <s> ME 0.0000
-2.2878 <s> MORTY 0.0000
-2.2878 <s> MY 0.0000
-2.2878 <s> NEED 0.0000
-2.2878 <s> OH 0.0000
-2.2878 <s> ONE 0.0000
-2.2878 <s> OR 0.0000
-1.9868 <s> OUT 0.0000
-2.2878 <s> PAL 0.0000
-2.2878 <s> PASS 0.0000
-1.9868 <s> PROJECT 0.0000
-2.2878 <s> PURPOSE 0.0000
-2.2878 <s> RICK 0.0000
-2.2878 <s> RIDE 0.0000
-2.2878 <s> RIGHT 0.0000
-1.6857 <s> SCIENCE 0.0000
-2.2878 <s> SCIENTIFICALLY 0.0000
-2.2878 <s> SOME 0.0000
-1.9868 <s> SON 0.0000
-2.2878 <s> THANK 0.0000
-2.2878 <s> THE 0.0000
-1.8107 <s> THING 0.0000
-1.9868 <s> THINK 0.0000
-1.9868 <s> THIS 0.0000
-2.2878 <s> THREE 0.0000
-2.2878 <s> TO 0.0000
-2.2878 <s> TOGETHER 0.0000
-2.2878 <s> TRADITIONALLY 0.0000
-2.2878 <s> TRADITIONSE 0.0000
-2.2878 <s> TWO 0.0000
-2.2878 <s> UH 0.0000
-2.2878 <s> UM 0.0000
-2.2878 <s> WE 0.0000
-2.2878 <s> WEEKEND 0.0000
-2.2878 <s> WELCOME 0.0000
-2.2878 <s> WELL 0.0000
-2.2878 <s> WE’LL 0.0000
-2.2878 <s> WHAT 0.0000
-2.2878 <s> WHATEVER 0.0000
-2.2878 <s> WHY 0.0000
-2.2878 <s> WILL 0.0000
-2.2878 <s> WITH 0.0000
-1.9868 <s> WORK 0.0000
-1.9868 <s> YEAH 0.0000
-2.2878 <s> YES 0.0000
-2.2878 <s> YOU 0.0000
-0.3010 A </s> -0.3010
-0.3010 AN </s> -0.3010
-0.3010 ANYTHING </s> -0.3010
-0.3010 ARE </s> -0.3010
-0.3010 BACKED </s> -0.3010
-0.3010 BE </s> -0.3010
-0.3010 BREW </s> -0.3010
-0.3010 BUSY </s> -0.3010
-0.3010 BUTTER </s> -0.3010
-0.3010 CLUB </s> -0.3010
-0.3010 COFFEE </s> -0.3010
-0.3010 COULD </s> -0.3010
-0.3010 CRAYONS </s> -0.3010
-0.3010 DAD </s> -0.3010
-0.3010 DAYS </s> -0.3010
-0.3010 DO </s> -0.3010
-0.3010 DOING </s> -0.3010
-0.3010 DON’T </s> -0.3010
-0.3010 ELSE </s> -0.3010
-0.3010 FAIR </s> -0.3010
-0.3010 FAIRS </s> -0.3010
-0.3010 FATHER </s> -0.3010
-0.3010 FOR </s> -0.3010
-0.3010 FUN </s> -0.3010
-0.3010 GET </s> -0.3010
-0.3010 GIVE </s> -0.3010
-0.3010 GOD </s> -0.3010
-0.3010 HAVE </s> -0.3010
-0.3010 HELP </s> -0.3010
-0.3010 HELPING </s> -0.3010
-0.3010 HEY </s> -0.3010
-0.3010 HORSE </s> -0.3010
-0.3010 I </s> -0.3010
-0.3010 IDIOT </s> -0.3010
-0.3010 IT </s> -0.3010
-0.3010 I’M </s> -0.3010
-0.3010 KNOCK </s> -0.3010
-0.3010 MAKE </s> -0.3010
-0.3010 MAYBE </s> -0.3010
-0.3010 ME </s> -0.3010
-0.3010 MORTY </s> -0.3010
-0.3010 MY </s> -0.3010
-0.3010 NEED </s> -0.3010
-0.3010 OH </s> -0.3010
-0.3010 ONE </s> -0.3010
-0.3010 OR </s> -0.3010
-0.3010 OUT </s> -0.3010
-0.3010 PAL </s> -0.3010
-0.3010 PASS </s> -0.3010
-0.3010 PROJECT </s> -0.3010
-0.3010 PURPOSE </s> -0.3010
-0.3010 RICK </s> -0.3010
-0.3010 RIDE </s> -0.3010
-0.3010 RIGHT </s> -0.3010
-0.3010 SCIENCE </s> -0.3010
-0.3010 SCIENTIFICALLY </s> -0.3010
-0.3010 SOME </s> -0.3010
-0.3010 SON </s> -0.3010
-0.3010 THANK </s> -0.3010
-0.3010 THE </s> -0.3010
-0.3010 THING </s> -0.3010
-0.3010 THINK </s> -0.3010
-0.3010 THIS </s> -0.3010
-0.3010 THREE </s> -0.3010
-0.3010 TO </s> -0.3010
-0.3010 TOGETHER </s> -0.3010
-0.3010 TRADITIONALLY </s> -0.3010
-0.3010 TRADITIONSE </s> -0.3010
-0.3010 TWO </s> -0.3010
-0.3010 UH </s> -0.3010
-0.3010 UM </s> -0.3010
-0.3010 WE </s> -0.3010
-0.3010 WEEKEND </s> -0.3010
-0.3010 WELCOME </s> -0.3010
-0.3010 WELL </s> -0.3010
-0.3010 WE’LL </s> -0.3010
-0.3010 WHAT </s> -0.3010
-0.3010 WHATEVER </s> -0.3010
-0.3010 WHY </s> -0.3010
-0.3010 WILL </s> -0.3010
-0.3010 WITH </s> -0.3010
-0.3010 WORK </s> -0.3010
-0.3010 YEAH </s> -0.3010
-0.3010 YES </s> -0.3010
-0.3010 YOU </s> -0.3010

\3-grams:
-0.3010 <s> A </s>
-0.3010 <s> AN </s>
-0.3010 <s> ANYTHING </s>
-0.3010 <s> ARE </s>
-0.3010 <s> BACKED </s>
-0.3010 <s> BE </s>
-0.3010 <s> BREW </s>
-0.3010 <s> BUSY </s>
-0.3010 <s> BUTTER </s>
-0.3010 <s> CLUB </s>
-0.3010 <s> COFFEE </s>
-0.3010 <s> COULD </s>
-0.3010 <s> CRAYONS </s>
-0.3010 <s> DAD </s>
-0.3010 <s> DAYS </s>
-0.3010 <s> DO </s>
-0.3010 <s> DOING </s>
-0.3010 <s> DON’T </s>
-0.3010 <s> ELSE </s>
-0.3010 <s> FAIR </s>
-0.3010 <s> FAIRS </s>
-0.3010 <s> FATHER </s>
-0.3010 <s> FOR </s>
-0.3010 <s> FUN </s>
-0.3010 <s> GET </s>
-0.3010 <s> GIVE </s>
-0.3010 <s> GOD </s>
-0.3010 <s> HAVE </s>
-0.3010 <s> HELP </s>
-0.3010 <s> HELPING </s>
-0.3010 <s> HEY </s>
-0.3010 <s> HORSE </s>
-0.3010 <s> I </s>
-0.3010 <s> IDIOT </s>
-0.3010 <s> IT </s>
-0.3010 <s> I’M </s>
-0.3010 <s> KNOCK </s>
-0.3010 <s> MAKE </s>
-0.3010 <s> MAYBE </s>
-0.3010 <s> ME </s>
-0.3010 <s> MORTY </s>
-0.3010 <s> MY </s>
-0.3010 <s> NEED </s>
-0.3010 <s> OH </s>
-0.3010 <s> ONE </s>
-0.3010 <s> OR </s>
-0.3010 <s> OUT </s>
-0.3010 <s> PAL </s>
-0.3010 <s> PASS </s>
-0.3010 <s> PROJECT </s>
-0.3010 <s> PURPOSE </s>
-0.3010 <s> RICK </s>
-0.3010 <s> RIDE </s>
-0.3010 <s> RIGHT </s>
-0.3010 <s> SCIENCE </s>
-0.3010 <s> SCIENTIFICALLY </s>
-0.3010 <s> SOME </s>
-0.3010 <s> SON </s>
-0.3010 <s> THANK </s>
-0.3010 <s> THE </s>
-0.3010 <s> THING </s>
-0.3010 <s> THINK </s>
-0.3010 <s> THIS </s>
-0.3010 <s> THREE </s>
-0.3010 <s> TO </s>
-0.3010 <s> TOGETHER </s>
-0.3010 <s> TRADITIONALLY </s>
-0.3010 <s> TRADITIONSE </s>
-0.3010 <s> TWO </s>
-0.3010 <s> UH </s>
-0.3010 <s> UM </s>
-0.3010 <s> WE </s>
-0.3010 <s> WEEKEND </s>
-0.3010 <s> WELCOME </s>
-0.3010 <s> WELL </s>
-0.3010 <s> WE’LL </s>
-0.3010 <s> WHAT </s>
-0.3010 <s> WHATEVER </s>
-0.3010 <s> WHY </s>
-0.3010 <s> WILL </s>
-0.3010 <s> WITH </s>
-0.3010 <s> WORK </s>
-0.3010 <s> YEAH </s>
-0.3010 <s> YES </s>
-0.3010 <s> YOU </s>

\end\
